tree
version=v4
num_class=1
num_tree_per_iteration=1
label_index=0
max_feature_idx=29
objective=binary sigmoid:1
feature_names=Column_0 Column_1 Column_2 Column_3 Column_4 Column_5 Column_6 Column_7 Column_8 Column_9 Column_10 Column_11 Column_12 Column_13 Column_14 Column_15 Column_16 Column_17 Column_18 Column_19 Column_20 Column_21 Column_22 Column_23 Column_24 Column_25 Column_26 Column_27 Column_28 Column_29
feature_infos=[7.6909999999999998:28.109999999999999] [9.7100000000000009:39.280000000000001] [47.920000000000002:188.5] [170.40000000000001:2501] [0.052630000000000003:0.16339999999999999] [0.019380000000000001:0.31140000000000001] [0:0.42680000000000001] [0:0.20119999999999999] [0.1167:0.30399999999999999] [0.049959999999999997:0.097439999999999999] [0.1115:2.8730000000000002] [0.36020000000000002:4.8849999999999998] [0.75700000000000001:21.98] [6.8019999999999996:542.20000000000005] [0.0017129999999999999:0.031130000000000001] [0.0022520000000000001:0.13539999999999999] [0:0.39600000000000002] [0:0.052789999999999997] [0.0078820000000000001:0.061460000000000001] [0.00089479999999999996:0.029839999999999998] [8.6780000000000008:36.039999999999999] [12.02:49.539999999999999] [54.490000000000002:251.19999999999999] [223.59999999999999:4254] [0.071169999999999997:0.21840000000000001] [0.027289999999999998:0.93789999999999996] [0:1.252] [0:0.29099999999999998] [0.1565:0.66379999999999995] [0.055039999999999999:0.17299999999999999]
tree_sizes=948 1258 1706 1692 1821 1823 1717 1723 1609 1823 1691 1700 1804 1808 1810 1812 1799 1798 1801 1702

Tree=0
num_leaves=8
num_cat=0
split_feature=7 22 20 13 1 12 0
split_gain=254.995 23.8068 8.04373 1.5893 0.860232 0.189402 1.42109e-14
threshold=0.052170000000000001 105.95000000000002 16.420000000000005 33.605000000000011 21.575000000000003 2.7060000000000004 13.760000000000002
decision_type=2 2 2 2 2 2 2
left_child=2 -2 4 -3 5 6 -1
right_child=1 3 -4 -5 -6 -7 -8
leaf_value=0.60563855406864875 0.51252514063903676 0.42360183081375735 0.53425160377261283 0.39147770318054109 0.58616938580609346 0.59493051152424337 0.60563855406864875
leaf_weight=31.05142779648304 5.3697957843542126 4.6693876385688808 4.9028570204973212 21.946121901273727 7.7044896036386481 4.6693876385688773 4.6693876385688773
leaf_count=133 23 20 21 94 33 20 20
internal_value=0.526093 0.416489 0.595261 0.397114 0.60148 0.604401 0.605639
internal_weight=0 31.9853 52.9975 26.6155 48.0947 40.3902 35.7208
internal_count=364 137 227 114 206 173 153
is_linear=0
shrinkage=1


Tree=1
num_leaves=11
num_cat=0
split_feature=7 22 22 21 1 10 10 0 12 0
split_gain=228.346 20.2617 7.70066 1.523 0.824814 0.184038 0.00493497 5.88084e-05 1.21191e-05 1.42109e-14
threshold=0.052170000000000001 105.95000000000002 108.55000000000001 24.660000000000004 21.575000000000003 0.39145000000000002 0.39730000000000004 13.760000000000002 2.3935000000000004 12.185
decision_type=2 2 2 2 2 2 2 2 2 2
left_child=2 -2 4 -3 5 7 -5 8 9 -1
right_child=1 3 -4 6 -6 -7 -8 -9 -10 -11
leaf_value=0.077286291748379088 -0.012844044793165969 -0.093344545565739803 0.0071886105175489011 -0.12576613051432481 0.058088001429337566 0.066667627666371729 -0.12395824819658702 0.07749182981667839 0.077374609803988248 0.07728629174837913
leaf_weight=15.07486760616303 5.3883314728736869 4.8054761439561871 4.8762331753969184 4.789987429976466 7.5833063572645178 4.5819921791553488 17.808915853500366 4.577280491590499 4.57242527604103 10.735132992267607
leaf_count=66 23 20 21 20 33 20 74 20 20 47
internal_value=0 -0.101478 0.0670037 -0.118906 0.073193 0.0760898 -0.124341 0.0773248 0.0772996 0.0772863
internal_weight=0 32.7927 52.0012 27.4044 47.125 39.5417 22.5989 34.9597 30.3824 25.81
internal_count=364 137 227 114 206 173 94 153 133 113
is_linear=0
shrinkage=0.05


Tree=2
num_leaves=15
num_cat=0
split_feature=7 27 22 1 24 28 13 1 10 22 16 0 0 10
split_gain=205.731 19.4152 7.28431 0.799432 0.689908 0.197479 0.072783 0.00141755 0.000285898 4.93278e-05 2.43003e-06 3.6454e-07 1.37953e-09 3.99687e-10
threshold=0.052170000000000001 0.14655000000000004 108.55000000000001 21.575000000000003 0.13150000000000003 0.21625000000000003 33.605000000000011 18.895000000000003 0.3716000000000001 98.855000000000018 0.033150000000000006 17.800000000000004 12.860000000000001 0.27600000000000008
decision_type=2 2 2 2 2 2 2 2 2 2 2 2 2 2
left_child=2 -2 3 5 -3 -1 -6 -8 9 10 12 -9 13 -7
right_child=1 4 -4 -5 6 8 7 11 -10 -11 -12 -13 -14 -15
leaf_value=0.064168224242432695 -0.016912770569309503 -0.096436572326331044 0.006842706469403337 0.056170555559669572 -0.12245152577285437 0.075256867733007299 -0.11633747337946512 -0.11531825146249314 0.075710735351954495 0.075444130420133815 0.075297211969478639 -0.11533595767335486 0.07525571893162783 0.075256310736643531
leaf_weight=4.4656504094600669 6.4645895659923545 4.8935177177190807 4.8668428659439078 7.4533809423446646 5.0662066042423275 11.594727933406842 4.9011772572994259 4.9117745012044889 4.7090778350830069 4.469385400414466 4.4618206024169913 7.1218170523643494 4.4594440162181845 4.4594784080982199
leaf_count=20 27 20 21 33 21 52 20 20 21 20 20 29 20 20
internal_value=0 -0.0947155 0.0650175 0.0711627 -0.113417 0.0740561 -0.117194 -0.115621 0.075349 0.0752911 0.0752638 -0.115329 0.0752565 0.0752567
internal_weight=0 33.3591 50.9398 46.073 26.8945 38.6196 22.001 16.9348 34.1539 29.4449 24.9755 12.0336 20.5137 16.0542
internal_count=364 137 227 206 110 173 90 69 153 132 112 49 92 72
is_linear=0
shrinkage=0.05


Tree=3
num_leaves=15
num_cat=0
split_feature=27 23 21 20 11 27 21 24 13 3 27 18 28 22
split_gain=177.891 30.0783 4.69966 3.71377 0.82361 0.0411031 0.00276072 0.00118304 0.000431417 0.000144717 0.000127605 3.30171e-05 7.59648e-06 1.18749e-08
threshold=0.14655000000000004 871.25000000000011 30.135000000000002 16.385000000000002 1.9100000000000004 0.1019 25.100000000000005 0.13535000000000003 28.365000000000006 908.6500000000002 0.041345000000000007 0.022215000000000002 0.24020000000000002 92.780000000000015
decision_type=2 2 2 2 2 2 2 2 2 2 2 2 2 2
left_child=1 2 4 -2 5 8 -5 -8 10 -9 -1 12 -12 -14
right_child=3 -3 -4 6 -6 -7 7 9 -10 -11 11 -13 13 -15
leaf_value=0.073772264386912784 -0.060535931311460227 -0.060362372144927012 0.028851641525633576 -0.10990331686814847 0.051972429983884717 0.077776495072760327 -0.1092334522417199 -0.1085441532954506 0.07406053948173523 -0.1082041222443714 0.073500707653882127 0.073589517517761355 0.073425329151671437 0.073422114098815883
leaf_weight=4.3669928759336534 4.7928793579340008 5.2305385619401923 7.4046975672245017 4.959073111414912 4.5861282944679251 7.2819115966558448 4.9640884697437313 4.9689088463783255 4.3854433745145789 8.4511346668004972 4.3500349670648637 5.0088229030370703 8.472830116748808 4.3448253720998755
leaf_count=20 20 22 33 20 21 32 20 20 20 34 20 23 39 20
internal_value=0 0.0537418 0.0656304 -0.100625 0.0719938 0.0743968 -0.108856 -0.108574 0.0736011 -0.10833 0.0735252 0.0734766 0.0734436 0.0734242
internal_weight=0 55.4322 50.2017 28.1361 42.797 38.2109 23.3432 18.3841 30.9289 13.42 26.5435 22.1765 17.1677 12.8177
internal_count=364 250 228 114 195 174 94 74 142 54 122 102 79 59
is_linear=0
shrinkage=0.05


Tree=4
num_leaves=16
num_cat=0
split_feature=7 27 20 15 16 17 13 1 25 1 11 11 18 15 27
split_gain=171.48 14.4411 6.51606 0.772725 2.46442 0.653189 0.0678067 0.00568166 0.00204012 0.00124125 0.000736748 0.00024478 0.000201995 3.25849e-05 1.98957e-06
threshold=0.052170000000000001 0.14655000000000004 16.420000000000005 0.012035000000000002 0.012510000000000002 0.018975000000000002 33.065000000000005 21.595000000000002 0.27740000000000004 18.825000000000003 1.1395000000000002 1.6825000000000003 0.018115000000000003 0.023120000000000005 0.085270000000000012
decision_type=2 2 2 2 2 2 2 2 2 2 2 2 2 2 2
left_child=2 -2 3 4 10 6 -3 8 11 -8 -1 13 -11 14 -5
right_child=1 5 -4 7 -6 -7 9 -9 -10 12 -12 -13 -14 -15 -16
leaf_value=0.071834076044634765 -0.017304628353331013 -0.10934764548212515 0.0067508125263312825 0.071770422439186576 0.027472762598461278 -0.084175304244796204 -0.10338548860181951 0.073969550421494709 0.073082337861816823 -0.10228873156948806 0.072701098210058532 0.07222316911744904 -0.10269914199089361 0.071916698345269231 0.071727832508582612
leaf_weight=4.8659131526947004 6.4328057467937461 4.9505629539489808 4.8538890779018393 7.8189221322536593 4.4701826125383368 4.9865231812000266 4.993972301483157 4.8168795108795157 4.3094528019428244 7.4962067753076536 4.9353111088275909 4.2600564509630194 4.9963653683662415 4.2373910546302787 4.2231844812631607
leaf_count=23 27 20 21 37 21 20 20 22 20 30 23 20 20 20 20
internal_value=0 -0.0847282 0.0617256 0.0677988 0.0582388 -0.100544 -0.104182 0.0723979 0.0720933 -0.102719 0.0722707 0.0718857 -0.102453 0.0717974 0.0717555
internal_weight=0 33.8564 48.7912 43.9373 14.2714 27.4236 22.4371 29.6659 24.849 17.4865 9.80122 20.5396 12.4926 16.2795 12.0421
internal_count=364 137 227 206 67 110 90 139 117 70 46 97 50 77 57
is_linear=0
shrinkage=0.05


Tree=5
num_leaves=16
num_cat=0
split_feature=23 25 7 1 1 7 11 7 29 15 13 15 6 10 26
split_gain=159.302 27.2382 4.12647 1.15412 0.725986 0.451031 0.203136 0.00868178 0.0053548 0.000989427 0.000595744 0.000199446 0.000396366 2.39563e-06 9.93049e-07
threshold=884.55000000000007 0.38415000000000005 0.052650000000000009 18.410000000000004 21.575000000000003 0.062770000000000006 1.6665000000000003 0.034605000000000004 0.079930000000000015 0.034785000000000003 26.050000000000004 0.011665000000000002 0.015855000000000005 0.27160000000000001 0.18750000000000003
decision_type=2 2 2 2 2 2 2 2 2 2 2 2 2 2 2
left_child=1 2 4 -2 6 -5 7 10 -7 -10 11 12 -1 14 -13
right_child=3 -3 -4 5 -6 8 -8 -9 9 -11 -12 13 -14 -15 -16
leaf_value=0.070255729337222114 -0.07627770374302692 -0.056323112799275848 0.020377057494346359 -0.11539807143368047 0.052266964595762258 -0.099625844619052967 0.059281110244199381 0.072903348839467627 -0.097354042846843306 -0.098250890983035605 0.071027008909153616 0.070258239334552317 0.070918682271761221 0.070290283989814004 0.070226030195832068
leaf_weight=4.924526348710069 5.4487938731908825 5.477309674024581 5.4753978401422492 4.862145438790324 7.4686522483825675 4.9912735819816616 4.3531175851821891 4.2622371912002555 7.993936210870741 4.9980508238077164 4.1603846549987784 5.7455976605415326 4.1584984958171844 4.1066775023937216 4.1012234687805176
leaf_count=24 22 23 23 20 35 20 21 20 32 20 20 28 20 20 20
internal_value=0 0.0493968 0.0612734 -0.0969552 0.0664471 -0.101887 0.0694044 0.0708052 -0.0982338 -0.0976991 0.0704764 0.0703769 0.0705593 0.0702582 0.0702448
internal_weight=0 54.2336 48.7563 28.2942 43.2809 22.8454 35.8123 31.4591 17.9833 12.992 27.1969 23.0365 9.08302 13.9535 9.84682
internal_count=368 254 231 114 208 92 173 152 72 52 132 112 44 68 48
is_linear=0
shrinkage=0.05


Tree=6
num_leaves=15
num_cat=0
split_feature=23 27 1 1 27 25 27 10 16 15 14 11 29 27
split_gain=144.984 31.0623 2.90318 1.0546 0.335506 0.200262 0.0655552 0.0053428 0.00120102 0.00019874 9.8238e-05 5.46604e-05 4.00991e-06 1.04863e-06
threshold=884.55000000000007 0.14205000000000004 21.575000000000003 18.410000000000004 0.15505000000000002 0.087285000000000015 0.10625000000000001 0.37870000000000009 0.047210000000000009 0.011665000000000002 0.0055355000000000005 1.3055000000000001 0.074300000000000019 0.083020000000000024
decision_type=2 2 2 2 2 2 2 2 2 2 2 2 2 2
left_child=1 2 5 -2 -5 -1 7 9 10 -7 -6 12 -11 -14
right_child=3 -3 -4 4 8 6 -8 -9 -10 11 -12 -13 13 -15
leaf_value=0.059934897117784158 -0.072417414466500948 -0.04986508368107484 0.036113124509415451 -0.10686257970644164 -0.093043028965137081 0.069277465695760418 0.075436501357495328 0.070947285563328355 -0.093793790511356445 0.068933497850184072 -0.09274299067024655 0.069103793258336127 0.068888780283660578 0.068854022856338126
leaf_weight=5.4084517359733573 5.452129781246188 7.0316524356603614 8.2582210153341276 6.1616112440824535 5.7176912426948565 6.0236570090055528 5.2614343017339698 4.3302146047353736 5.7243385165929785 3.9842740893363979 5.2177195847034454 3.9998863488435736 4.7762523591518384 3.9768978357315063
leaf_count=27 22 29 39 25 23 30 24 21 23 20 21 20 24 20
internal_value=0 0.0480121 0.0629676 -0.092174 -0.0968939 0.0688406 0.0703293 0.0693375 -0.093207 0.0690312 -0.0928999 0.0689426 0.0688919 0.068873
internal_weight=0 53.0509 46.0193 28.2735 22.8214 37.7611 32.3526 27.0912 16.6597 22.761 10.9354 16.7373 12.7374 8.75315
internal_count=368 254 225 114 92 186 159 135 67 114 44 84 64 44
is_linear=0
shrinkage=0.05


Tree=7
num_leaves=15
num_cat=0
split_feature=23 27 1 1 28 27 27 10 16 25 16 14 25 17
split_gain=132.416 28.8232 2.84122 0.982039 0.261174 0.253046 0.0537528 0.00408979 0.00090499 0.000167232 0.000210932 7.40551e-05 1.87226e-05 5.30241e-07
threshold=884.55000000000007 0.14205000000000004 21.575000000000003 18.410000000000004 0.22495000000000001 0.15505000000000002 0.10625000000000001 0.37870000000000009 0.047210000000000009 0.15240000000000001 0.012510000000000002 0.0055355000000000005 0.18075000000000002 0.0082455000000000011
decision_type=2 2 2 2 2 2 2 2 2 2 2 2 2 2
left_child=1 2 4 -2 -1 -5 7 9 11 10 -6 -7 -11 -14
right_child=3 -3 -4 5 6 8 -8 -9 -10 12 -12 -13 13 -15
leaf_value=0.055225679394769467 -0.068940118946124271 -0.047161515321089961 0.034808780835787485 -0.10122359574465396 0.067756118469536622 -0.089219017719237736 0.073621634649216741 0.069444750279317985 -0.089873512739199232 0.067734583918358418 0.068219721415878384 -0.08895730565035144 0.067623637010577761 0.067597403890602786
leaf_weight=3.8967357426881781 5.4410065114498165 7.0621674656867972 8.1422811448574048 6.1790115684270885 6.5745810419321113 5.6658661812543887 5.1250339895486823 4.39439933001995 5.6764746010303488 5.0244371742010099 3.914255365729332 5.1689545810222626 3.853880986571312 3.8511266261339188
leaf_count=20 22 29 39 25 34 23 24 22 23 26 20 21 20 20
internal_value=0 0.0467179 0.0615246 -0.0880176 0.0674624 -0.0925922 0.0689189 0.068046 -0.0893621 0.0677813 0.0679291 -0.0890942 0.0676595 0.0676105
internal_weight=0 51.8389 44.7767 28.1313 36.6345 22.6903 32.7377 27.6127 16.5113 23.2183 10.4888 10.8348 12.7294 7.70501
internal_count=368 254 225 114 186 92 166 142 67 120 54 44 66 40
is_linear=0
shrinkage=0.05


Tree=8
num_leaves=14
num_cat=0
split_feature=23 27 1 1 28 7 7 19 12 22 25 16 14
split_gain=121.298 26.7834 2.79057 0.929128 0.256429 0.208026 0.0611829 0.00250059 0.00221927 0.000627117 0.000136569 0.000137252 2.4989e-05
threshold=884.55000000000007 0.14205000000000004 21.575000000000003 18.410000000000004 0.22495000000000001 0.062770000000000006 0.043195000000000004 0.0049800000000000009 2.5270000000000006 145.50000000000003 0.17165000000000002 0.011420000000000001 0.0067120000000000001
decision_type=2 2 2 2 2 2 2 2 2 2 2 2 2
left_child=1 2 4 -2 -1 -5 8 9 10 -7 11 -6 -12
right_child=3 -3 -4 5 6 7 -8 -9 -10 -11 12 -13 -14
leaf_value=0.053911062562924363 -0.065782950385825059 -0.044664449335734213 0.03355158612034944 -0.097920413087472596 0.066579623333498872 -0.085481705220158327 0.073397998615154558 -0.08725941711794577 0.06779912128202141 -0.086205653083934464 0.066542389342061456 0.066909573287935495 0.066380703162148114
leaf_weight=3.7947729825973502 5.4175927788019207 7.0835474878549567 8.0279626548290235 4.9341791272163418 7.1058275550603955 4.8555490672588366 4.0574633926153174 4.8872573822736731 4.8099801391363135 7.791664332151413 6.1628023535013181 5.6642622202634811 3.903227686882019
leaf_count=20 22 29 39 20 38 20 19 20 25 32 33 30 21
internal_value=0 0.0455001 0.0601737 -0.0843695 0.0661942 -0.088851 0.0676645 -0.0862989 0.066823 -0.0859277 0.0666174 0.066726 0.0664797
internal_weight=0 50.6098 43.5263 27.8862 35.4983 22.4686 31.7036 17.5345 27.6461 12.6472 22.8361 12.7701 10.066
internal_count=368 254 225 114 186 92 166 72 147 52 122 68 54
is_linear=0
shrinkage=0.05


Tree=9
num_leaves=16
num_cat=0
split_feature=23 7 21 13 1 21 7 7 18 1 14 25 16 12 5
split_gain=111.395 21.5912 19.6548 1.6261 0.890739 0.413337 0.160567 0.00990649 0.00154743 0.00103866 0.000302869 0.000216202 0.000130409 1.91021e-05 2.95353e-06
threshold=884.55000000000007 0.052170000000000001 26.350000000000005 30.785000000000004 18.410000000000004 30.135000000000002 0.062770000000000006 0.034605000000000004 0.021030000000000004 19.360000000000003 0.0060440000000000016 0.14645000000000002 0.012510000000000002 1.7025000000000003 0.07444000000000002
decision_type=2 2 2 2 2 2 2 2 2 2 2 2 2 2 2
left_child=1 3 -3 5 -2 7 -6 9 10 11 -8 12 -1 14 -13
right_child=4 2 -4 -5 6 -7 8 -9 -10 -11 -12 13 -14 -15 -16
leaf_value=0.065646428849952518 -0.062895931374009256 0.050958890269116576 -0.092990116692182184 0.029749982030539593 -0.093549945888792452 0.051312305940728178 -0.083197209114319007 0.068353204343568924 -0.083947699711393473 0.066512401881171523 -0.082677237916532212 0.065444738356900387 0.066015209107989262 0.06554230926691311 0.065380708089079656
leaf_weight=6.8969724178314298 5.3837907463312176 4.5900121480226499 4.9058151692152023 3.8846180140972129 4.907070621848109 5.5956638753414145 5.9915180802345294 4.2022837698459616 6.0143410116434088 3.7161865979433051 5.2582729160785675 3.6058594584465009 3.6744029372930527 4.7028129398822784 3.5981011092662811
leaf_count=38 22 20 20 20 20 28 25 22 25 20 22 20 20 26 20
internal_value=0 0.0443485 -0.0234093 0.0604836 -0.0811389 0.0638006 -0.0855688 0.0660996 -0.0833003 0.0657381 -0.0829542 0.06561 0.0657746 0.0654639 0.0654128
internal_weight=0 49.3727 9.49583 39.8769 27.555 35.9923 22.1712 30.3966 17.2641 26.1943 11.2498 22.4781 10.5714 11.9068 7.20396
internal_count=368 254 40 214 114 194 92 166 72 144 47 124 58 66 40
is_linear=0
shrinkage=0.05


Tree=10
num_leaves=15
num_cat=0
split_feature=27 20 21 3 15 4 18 19 20 7 1 1 11 15
split_gain=103.76 14.3125 5.55033 5.27553 0.492662 0.685645 0.289532 0.7202 0.118693 0.0139778 0.00718143 0.00588249 0.00018718 0.000141405
threshold=0.111 15.345000000000001 22.850000000000005 659.25000000000011 0.017905000000000001 0.094625000000000015 0.017040000000000003 0.0026275000000000001 17.550000000000001 0.032300000000000009 20.235000000000003 21.005000000000006 1.4465000000000001 0.012505000000000002
decision_type=2 2 2 2 2 2 2 2 2 2 2 2 2 2
left_child=3 -2 -3 6 -4 -6 7 -1 -7 11 -10 12 13 -8
right_child=1 2 4 -5 5 8 9 -9 10 -11 -12 -13 -14 -15
leaf_value=0.065212662628506002 0.023599298090158132 -0.023276143323977334 -0.096379904334054051 0.0024420478558793311 -0.061959739044665833 -0.090152203981663029 0.064812175117269361 0.037494803593970179 -0.08257405535805426 0.068453638662608715 -0.08015826937798376 0.066917786589502481 0.065024739706591783 0.064458473478730668
leaf_weight=6.771822437644003 4.2720875144004813 4.6707285642623892 5.0011145174503353 4.1036523878574362 4.6687287390232113 4.8299939930439022 4.9348817020654732 3.5838062614202499 4.7644670605659476 3.8508613109588614 8.682440906763075 3.7590136975049964 3.551093026995658 6.6115198135375977
leaf_count=38 20 20 21 19 20 20 28 20 20 20 37 20 20 38
internal_value=0 -0.0624568 -0.073728 0.0559123 -0.08216 -0.0790607 0.0625488 0.0556203 -0.0834291 0.0657085 -0.0810142 0.0651479 0.0647073 0.0646096
internal_weight=0 36.8896 32.6175 37.1667 27.9467 22.9456 33.063 10.3556 18.2769 22.7074 13.4469 18.8565 15.0975 11.5464
internal_count=361 158 138 203 118 97 184 58 77 126 57 106 86 66
is_linear=0
shrinkage=0.05


Tree=11
num_leaves=15
num_cat=0
split_feature=27 20 21 2 15 4 7 15 20 1 1 10 19 15
split_gain=95.6826 13.1353 5.2239 4.81419 0.423233 0.673971 0.286465 0.720385 0.0948613 0.00880208 0.00566046 0.000151732 0.000102435 5.17997e-05
threshold=0.111 15.345000000000001 22.850000000000005 95.215000000000018 0.017905000000000001 0.094625000000000015 0.026550000000000004 0.016540000000000003 17.550000000000001 21.535000000000004 20.235000000000003 0.28830000000000006 0.0034035000000000007 0.010945000000000002
decision_type=2 2 2 2 2 2 2 2 2 2 2 2 2 2
left_child=3 -2 -3 6 -4 -6 9 -8 -7 11 -10 12 13 -1
right_child=1 2 4 -5 5 8 7 -9 10 -11 -12 -13 -14 -15
leaf_value=0.063785269666943381 0.022565422181727579 -0.02211397194492799 -0.092547491117601965 0.0043241726240401046 -0.059390338683245253 -0.086836259312686959 0.036058116212649947 0.065478637080011143 -0.080001670797199054 0.066507058566558488 -0.07783542679083838 0.064047474480296795 0.063988369154375557 0.06355101436205092
leaf_weight=4.7425125539302915 4.2451313734054557 4.6703874468803397 4.9490709304809597 4.1804887950420371 4.6282022893428829 4.7653156518936184 3.4857897609472257 5.1616970300674438 4.6740565299987784 3.722403109073638 8.4991004019975644 6.6708886474370948 3.4119102656841269 4.6971983015537262
leaf_count=28 20 20 21 19 20 20 20 29 20 20 37 39 20 28
internal_value=0 -0.0601035 -0.071007 0.0547754 -0.0793059 -0.0764019 0.0613886 0.0536193 -0.0807909 0.0642789 -0.078604 0.063854 0.0637536 0.0636687
internal_weight=0 36.4313 32.1861 36.0729 27.5157 22.5667 31.8924 8.64749 17.9385 23.2449 13.1732 19.5225 12.8516 9.43971
internal_count=361 158 138 203 118 97 184 49 77 135 57 115 76 56
is_linear=0
shrinkage=0.05


Tree=12
num_leaves=16
num_cat=0
split_feature=27 22 21 3 15 27 1 27 12 1 21 1 5 24 11
split_gain=88.3598 12.2207 18.2156 4.99065 0.261423 0.814839 0.0461514 0.0172175 0.0100283 0.00375816 0.00115668 0.000815438 0.00036764 0.000312957 6.03343e-05
threshold=0.111 116.05000000000003 25.725000000000005 659.25000000000011 0.012035000000000002 0.062615000000000018 18.085000000000004 0.16010000000000005 2.6325000000000003 20.690000000000001 28.765000000000004 17.805000000000003 0.089065000000000019 0.14795000000000003 1.0255000000000003
decision_type=2 2 2 2 2 2 2 2 2 2 2 2 2 2 2
left_child=3 2 -2 4 5 11 -3 -8 9 12 -9 -1 14 -12 -6
right_child=1 6 -4 -5 8 -7 7 10 -10 -11 13 -13 -14 -15 -16
leaf_value=0.062993361647548748 0.067374742619537895 -0.08259676615355932 -0.062789293071608965 0.0017260811634213305 0.062717527194035422 0.03381560616850831 -0.079674931300630109 -0.076799413235645653 0.066320091051120175 0.064821070331893493 -0.076181439951187369 0.064040746884559546 0.063418777856073028 -0.075591361927529785 0.062979300608956013
leaf_weight=4.0914535075426119 4.2021540701389295 4.7371815145015743 7.4585716426372528 4.0806905329227439 5.0111144036054664 3.3528270423412323 4.8577851504087475 5.6705867350101462 3.6238130778074256 3.6834767758846274 4.5101211518049222 3.4047006219625473 3.8159184157848349 4.4780563563108444 3.9254499077796936
leaf_count=25 20 20 32 19 31 20 21 25 20 21 20 20 23 20 24
internal_value=0 -0.0579462 -0.0158823 0.0536962 0.0605575 0.0543048 -0.0781697 -0.0770952 0.0639392 0.0634143 -0.0762402 0.0634691 0.0630079 -0.0758875 0.0628325
internal_weight=0 35.9145 11.6607 34.9894 30.9088 10.849 24.2537 19.5165 20.0598 16.436 14.6588 7.49615 12.7525 8.98818 8.93656
internal_count=361 158 52 203 184 65 106 86 119 99 65 45 78 40 55
is_linear=0
shrinkage=0.05


Tree=13
num_leaves=16
num_cat=0
split_feature=27 22 21 0 7 15 1 27 1 15 29 20 9 15 19
split_gain=81.797 11.524 16.5891 4.95532 0.283197 0.750043 0.0366502 0.0138464 0.00576914 0.000956957 0.0001841 0.000181988 0.000123565 5.8141e-05 2.22332e-05
threshold=0.111 116.05000000000003 25.725000000000005 14.625000000000002 0.026550000000000004 0.017670000000000002 18.085000000000004 0.16010000000000005 21.535000000000004 0.04092500000000001 0.06783500000000002 23.300000000000001 0.06757500000000001 0.011900000000000003 0.0027300000000000002
decision_type=2 2 2 2 2 2 2 2 2 2 2 2 2 2 2
left_child=3 2 -2 4 8 -6 -3 -8 10 11 -1 -9 13 -12 -15
right_child=1 6 -4 -5 5 -7 7 9 -10 -11 12 -13 -14 14 -16
leaf_value=0.062589851281804831 0.065417146284143274 -0.080045713690809497 -0.059651027176283213 -1.7598248304001148e-06 0.033295537754672692 0.063937948504545844 -0.07743117772811807 -0.073803380980018304 0.064480136407058311 -0.074904472562625418 0.062243018202073098 -0.074238326446123853 0.062455785897105626 0.061918574023838574 0.062096888386025187
leaf_weight=3.3653817325830557 4.1137610822916013 4.6460422873497036 7.458374559879303 3.9470839202404013 3.3125647455453855 5.028470054268837 4.751313433051112 4.5875741392374021 3.4733290076255789 4.6530525684356681 4.5801672935485822 5.0550476908683777 3.1893816590309134 3.2641461938619614 3.7638413310050964
leaf_count=21 20 20 32 18 20 30 21 21 20 21 29 23 20 21 24
internal_value=0 -0.0560887 -0.0151907 0.0526615 0.0595957 0.0517686 -0.076064 -0.0750928 0.0626131 -0.0743156 0.0622561 -0.0740314 0.0621801 0.0621044 0.0620141
internal_weight=0 35.2652 11.5721 33.9244 29.9773 8.34103 23.693 19.047 21.6362 14.2957 18.1629 9.64262 14.7975 11.6082 7.02799
internal_count=361 158 52 203 185 50 106 86 135 65 115 44 94 74 45
is_linear=0
shrinkage=0.05


Tree=14
num_leaves=16
num_cat=0
split_feature=27 22 28 0 18 19 1 27 7 1 15 11 15 20 25
split_gain=75.8207 10.8969 12.2468 6.9078 0.296826 0.820348 0.0293055 0.0112019 0.0110952 0.00218087 0.000768853 0.000450893 0.000264779 0.000145859 5.28056e-05
threshold=0.111 116.05000000000003 0.31745000000000007 14.955000000000002 0.017040000000000003 0.0026275000000000001 18.085000000000004 0.16010000000000005 0.032635000000000004 20.690000000000001 0.04092500000000001 0.91060000000000008 0.011900000000000003 23.300000000000001 0.16210000000000005
decision_type=2 2 2 2 2 2 2 2 2 2 2 2 2 2 2
left_child=3 2 -2 4 5 11 -3 -8 9 12 13 -1 -6 -9 -14
right_child=1 6 -4 -5 8 -7 7 10 -10 -11 -12 -13 14 -15 -16
leaf_value=0.061618793507012805 0.029775853033262169 -0.07776412362914209 -0.074769220598523922 -0.020285692362828546 0.061854048912368009 0.030917195568485697 -0.075412898832690714 -0.072110193007600451 0.064980168689072679 0.062908358730705702 -0.073110225896338324 0.062459293878028892 0.061550233869017472 -0.072504907684901532 0.061287231002861042
leaf_weight=3.2072126716375369 6.6072888821363431 4.5457711219787624 4.8630241304636002 3.0274195075035086 4.7843846678733888 3.1691975891590118 4.6374311298131969 4.4636677950620633 3.4589222371578208 3.8942796587944022 4.531951278448104 3.1755519956350327 3.047190994024275 4.9205150753259659 5.1074605584144592
leaf_count=21 31 20 21 13 31 20 21 21 20 24 21 20 20 23 34
internal_value=0 -0.0543846 -0.0145477 0.0516796 0.0589798 0.0517119 -0.0741662 -0.0732847 0.062401 0.061871 -0.0725754 0.062037 0.0615588 -0.0723172 0.0613855
internal_weight=0 34.5696 11.4703 32.8716 29.8442 9.55196 23.0993 18.5536 20.2922 16.8333 13.9161 6.38276 12.939 9.38418 8.15465
internal_count=361 158 52 203 190 61 106 86 129 109 65 41 85 44 54
is_linear=0
shrinkage=0.05


Tree=15
num_leaves=16
num_cat=0
split_feature=7 13 27 20 1 23 27 1 0 24 28 25 4 28 15
split_gain=76.8429 9.47029 7.46729 2.45518 0.546433 0.161903 0.0404355 0.016438 0.00103616 0.000551715 0.000159493 0.000151602 0.00011507 0.000116675 3.84298e-05
threshold=0.052170000000000001 38.415000000000013 0.14655000000000004 16.590000000000007 21.575000000000003 906.9000000000002 0.10535000000000001 18.48 13.675000000000002 0.13905000000000003 0.22700000000000004 0.40870000000000006 0.095930000000000015 0.28865000000000002 0.011900000000000003
decision_type=2 2 2 2 2 2 2 2 2 2 2 2 2 2 2
left_child=1 3 -2 4 6 -4 8 -7 10 -9 -1 -11 14 -14 -12
right_child=2 -3 5 -5 -6 7 -8 9 -10 11 12 -13 13 -15 -16
leaf_value=0.061220267583325633 -0.0088864685908048597 -0.038023694181069177 -0.081918816269003034 0.011723813791157812 0.043127974144343328 -0.074133238973492485 0.067050573738839006 -0.071134178432743389 0.061871095960080405 -0.070301633913302172 0.060825099773466666 -0.070697913584083297 0.061178441631491436 0.060763064006058146 0.060626612904696286
leaf_weight=2.9893770217895641 5.4893344491720226 3.002511352300643 4.648724332451823 3.0286428332328788 4.6434792578220359 4.5993437021970776 3.1640319228172293 5.0107033550739279 3.0743588507175437 5.1336968839168531 4.3864674568176287 4.5547718554735184 3.5785527080297461 3.2043364495038986 5.4916749000549316
leaf_count=20 25 14 20 13 27 21 18 24 20 25 30 22 24 22 38
internal_value=0 0.0470515 -0.0614853 0.0546627 0.058922 -0.0735423 0.0617549 -0.0715245 0.0610175 -0.0707082 0.060884 -0.0704879 0.0608236 0.0609822 0.0607148
internal_weight=0 36.5634 29.4366 33.5609 30.5323 23.9472 25.8888 19.2985 22.7248 14.6992 19.6504 9.68847 16.661 6.78289 9.87814
internal_count=363 226 137 212 199 112 172 92 154 71 134 47 114 46 68
is_linear=0
shrinkage=0.05


Tree=16
num_leaves=16
num_cat=0
split_feature=7 13 27 22 21 23 27 1 20 28 15 11 4 4 15
split_gain=71.2744 8.88191 7.1586 2.54785 0.670962 0.130548 0.0482945 0.0132491 0.00125071 0.000267546 0.000241098 0.000193709 0.000191985 0.00014601 1.49715e-05
threshold=0.052170000000000001 38.415000000000013 0.14655000000000004 109.95 30.135000000000002 906.9000000000002 0.10535000000000001 18.48 15.125000000000002 0.24510000000000001 0.025405000000000004 1.0880000000000003 0.10445000000000002 0.099310000000000023 0.015650000000000004
decision_type=2 2 2 2 2 2 2 2 2 2 2 2 2 2 2
left_child=1 3 -2 4 6 -4 8 -7 9 11 -9 -1 -12 14 -11
right_child=2 -3 5 -5 -6 7 -8 10 -10 13 12 -13 -14 -15 -16
leaf_value=0.060273387735054341 -0.0084349918495421148 -0.035948937142550715 -0.079477929214521084 0.010031301305474092 0.039259894229581503 -0.072412804627370528 0.067121445476800518 -0.069038713157466639 0.06138065248194028 0.06009975311548485 -0.069710825827719952 0.06085393016600054 -0.069239271144122608 0.060387461783676377 0.05996904117030865
leaf_weight=2.8263467550277843 5.4938683211803463 3.0166287571191779 4.5543008595705059 3.0229719877243033 4.0226410925388327 4.4763045608997372 3.0662020295858374 5.5902352780103675 2.9943343102931967 5.0311262011527997 4.0552298724651319 2.9228232949972153 4.6147206425666809 4.6916512697935095 3.8801760971546173
leaf_count=20 25 14 20 13 24 21 18 28 20 36 20 20 23 33 28
internal_value=0 0.0461173 -0.0597751 0.0537444 0.0582337 -0.0718852 0.0612371 -0.0700397 0.0604297 0.0602826 -0.0692947 0.0605685 -0.0694598 0.0601617 0.0600428
internal_weight=0 35.4749 28.7847 32.4583 29.4353 23.2908 25.4127 18.7365 22.3465 19.3521 14.2602 5.74917 8.66995 13.603 8.9113
internal_count=363 226 137 212 199 112 175 92 157 137 71 40 43 97 64
is_linear=0
shrinkage=0.05


Tree=17
num_leaves=16
num_cat=0
split_feature=7 13 27 22 21 23 27 1 20 24 28 11 4 25 22
split_gain=66.165 8.3379 6.88228 2.50739 0.681066 0.105833 0.0410895 0.0107288 0.00104673 0.000368676 0.000223394 0.000161792 0.000122097 0.000101044 1.05453e-05
threshold=0.052170000000000001 38.415000000000013 0.14655000000000004 109.95 30.135000000000002 906.9000000000002 0.10535000000000001 18.48 15.125000000000002 0.13905000000000003 0.24510000000000001 1.0880000000000003 0.099310000000000023 0.40870000000000006 86.315000000000012
decision_type=2 2 2 2 2 2 2 2 2 2 2 2 2 2 2
left_child=1 3 -2 4 6 -4 8 -7 10 -9 11 -1 14 -11 -12
right_child=2 -3 5 -5 -6 7 -8 9 -10 13 12 -13 -14 -15 -16
leaf_value=0.059672598150570889 -0.0080070050748918264 -0.034012173912222048 -0.077287177631040385 0.0095418730320665432 0.038162700362191743 -0.070850678110030971 0.066102251923803423 -0.06836212243081384 0.060705810082457158 -0.067660349207600431 0.059504873401117035 0.060213871854168738 0.059779198849816639 -0.067994121215329259 0.059392416329147768
leaf_weight=2.7148842960596253 5.4980378746986416 3.0286614298820487 4.4518165886402157 3.0192246139049521 3.9336671829223624 4.3494639694690731 2.9604851454496375 4.7136108875274649 2.8791568875312796 4.8211939334869367 4.9644209742546064 2.8090775907039642 4.5070925503969184 4.2809341996908188 3.5935800224542618
leaf_count=20 25 14 20 13 24 21 18 24 20 25 37 20 33 22 27
internal_value=0 0.0452136 -0.0581812 0.0528598 0.057471 -0.0703782 0.0605802 -0.068685 0.0598187 -0.0680032 0.0596813 0.0599478 0.0595686 -0.0678173 0.0594577
internal_weight=0 34.4103 28.1151 31.3816 28.3624 22.617 24.4287 18.1652 21.4682 13.8157 18.5891 5.52396 13.0651 9.10213 8.558
internal_count=363 226 137 212 199 112 175 92 157 71 137 40 97 47 64
is_linear=0
shrinkage=0.05


Tree=18
num_leaves=16
num_cat=0
split_feature=7 13 27 22 21 23 27 1 20 24 28 11 4 25 2
split_gain=61.4673 7.83424 6.63323 2.4685 0.691963 0.0862115 0.0350078 0.00872528 0.000877541 0.000300353 0.000186864 0.00013538 0.000102276 8.23025e-05 9.16762e-06
threshold=0.052170000000000001 38.415000000000013 0.14655000000000004 109.95 30.135000000000002 906.9000000000002 0.10535000000000001 18.48 15.125000000000002 0.13905000000000003 0.24510000000000001 1.0880000000000003 0.099310000000000023 0.40870000000000006 76.120000000000019
decision_type=2 2 2 2 2 2 2 2 2 2 2 2 2 2 2
left_child=1 3 -2 4 6 -4 8 -7 10 -9 11 -1 14 -11 -12
right_child=2 -3 5 -5 -6 7 -8 9 -10 13 12 -13 -14 -15 -16
leaf_value=0.059112409119405268 -0.0076012105705552989 -0.032200216502892315 -0.07531193963518916 0.0090761280535199083 0.037090747584616612 -0.069427591109606834 0.065155898325489667 -0.067149023487651935 0.060077660282257542 -0.066505122730203994 0.05896119018777185 0.059617678178960021 0.059212135363353492 -0.06681137376184719 0.058855310607420663
leaf_weight=2.6063293516636064 5.5018749237060574 3.0388602316379538 4.3429048955440548 3.0155458003282538 3.8472099751234046 4.2199690788984325 2.8559605628252021 4.5626549720764151 2.766645908355712 4.6636866033077222 4.3805436939001066 2.698119655251503 4.3272943645715705 4.1423952132463455 3.8335936218500137
leaf_count=20 25 14 20 13 24 21 18 24 20 25 34 20 33 22 30
internal_value=0 0.0443382 -0.0566888 0.0520065 0.0567458 -0.0690032 0.0599679 -0.0674455 0.0592491 -0.0668198 0.0591206 0.0593694 0.0590154 -0.0666492 0.0589118
internal_weight=0 33.3701 27.4335 30.3312 27.3157 21.9316 23.4685 17.5887 20.6125 13.3687 17.8459 5.30445 12.5414 8.80608 8.21414
internal_count=363 226 137 212 199 112 175 92 157 71 137 40 97 47 64
is_linear=0
shrinkage=0.05


Tree=19
num_leaves=15
num_cat=0
split_feature=27 13 1 27 25 0 2 7 1 24 11 7 10 11
split_gain=57.1698 11.8091 2.53849 1.73258 0.659551 0.354483 0.0535643 0.00508492 0.00424047 0.000255093 8.97506e-05 0.000110704 3.01713e-05 1.02405e-05
threshold=0.14205000000000004 36.060000000000009 21.575000000000003 0.15645000000000003 0.28835000000000005 14.460000000000003 98.00500000000001 0.033065000000000004 18.555000000000003 0.14300000000000004 1.542 0.026465000000000006 0.27160000000000001 0.95500000000000018
decision_type=2 2 2 2 2 2 2 2 2 2 2 2 2 2
left_child=1 2 4 -2 5 7 -5 10 -8 -10 11 12 13 -1
right_child=3 -3 -4 6 -6 -7 8 -9 9 -11 -12 -13 -14 -15
leaf_value=0.058435532936773851 -0.035058565482504904 -0.029691018402871139 0.019621267456240016 -0.072830718118166396 0.036111953666713992 0.07870550840776723 -0.067822915847515999 0.060986422810775556 -0.066146097926622169 -0.065659386301413158 0.058817252213384942 0.058810188049352057 0.05856090264136507 0.058316638457175024
leaf_weight=4.4445242881775062 5.1369157731533077 5.2623758912086478 5.1560437381267539 4.1587020158767727 2.9762773588299742 2.5545760095119467 3.8616059571504584 2.4929815456271163 5.159596920013426 5.6293346434831619 2.9252740666270247 2.5439107567071906 3.7420532330870628 3.056597888469696
leaf_count=36 25 25 31 20 18 13 20 18 28 31 23 20 30 25
internal_value=0 0.0393766 0.0515356 -0.0607941 0.0581879 0.0612074 -0.0678227 0.0588799 -0.0664011 -0.0658921 0.0585657 0.0585123 0.0584449 0.0583871
internal_weight=0 35.1546 29.8922 23.9462 24.7362 21.7599 18.8092 19.2053 14.6505 10.7889 16.7124 13.7871 11.2432 7.50112
internal_count=363 239 214 124 183 165 99 152 79 59 134 111 91 61
is_linear=0
shrinkage=0.05


end of trees

feature_importances:
Column_1=34
Column_27=33
Column_7=22
Column_15=19
Column_22=14
Column_11=13
Column_20=13
Column_21=13
Column_25=12
Column_13=11
Column_23=10
Column_28=10
Column_0=9
Column_10=9
Column_4=7
Column_16=7
Column_24=7
Column_12=5
Column_18=5
Column_19=5
Column_14=4
Column_2=3
Column_3=3
Column_29=3
Column_5=2
Column_17=2
Column_6=1
Column_9=1
Column_26=1

parameters:
[boosting: gbdt]
[objective: binary]
[metric: binary_logloss]
[tree_learner: serial]
[device_type: cpu]
[data_sample_strategy: bagging]
[data: ]
[valid: ]
[num_iterations: 20]
[learning_rate: 0.05]
[num_leaves: 30]
[num_threads: 0]
[seed: 0]
[deterministic: 0]
[force_col_wise: 0]
[force_row_wise: 0]
[histogram_pool_size: -1]
[max_depth: -1]
[min_data_in_leaf: 20]
[min_sum_hessian_in_leaf: 0.001]
[bagging_fraction: 0.8]
[pos_bagging_fraction: 1]
[neg_bagging_fraction: 1]
[bagging_freq: 5]
[bagging_seed: 3]
[feature_fraction: 0.9]
[feature_fraction_bynode: 1]
[feature_fraction_seed: 2]
[extra_trees: 0]
[extra_seed: 6]
[early_stopping_round: 0]
[early_stopping_min_delta: 0]
[first_metric_only: 0]
[max_delta_step: 0]
[lambda_l1: 0]
[lambda_l2: 0]
[linear_lambda: 0]
[min_gain_to_split: 0]
[drop_rate: 0.1]
[max_drop: 50]
[skip_drop: 0.5]
[xgboost_dart_mode: 0]
[uniform_drop: 0]
[drop_seed: 4]
[top_rate: 0.2]
[other_rate: 0.1]
[min_data_per_group: 100]
[max_cat_threshold: 32]
[cat_l2: 10]
[cat_smooth: 10]
[max_cat_to_onehot: 4]
[top_k: 20]
[monotone_constraints: ]
[monotone_constraints_method: basic]
[monotone_penalty: 0]
[feature_contri: ]
[forcedsplits_filename: ]
[refit_decay_rate: 0.9]
[cegb_tradeoff: 1]
[cegb_penalty_split: 0]
[cegb_penalty_feature_lazy: ]
[cegb_penalty_feature_coupled: ]
[path_smooth: 0]
[interaction_constraints: ]
[verbosity: 1]
[saved_feature_importance_type: 0]
[use_quantized_grad: 0]
[num_grad_quant_bins: 4]
[quant_train_renew_leaf: 0]
[stochastic_rounding: 1]
[linear_tree: 0]
[max_bin: 255]
[max_bin_by_feature: ]
[min_data_in_bin: 3]
[bin_construct_sample_cnt: 200000]
[data_random_seed: 1]
[is_enable_sparse: 1]
[enable_bundle: 1]
[use_missing: 1]
[zero_as_missing: 0]
[feature_pre_filter: 1]
[pre_partition: 0]
[two_round: 0]
[header: 0]
[label_column: ]
[weight_column: ]
[group_column: ]
[ignore_column: ]
[categorical_feature: ]
[forcedbins_filename: ]
[precise_float_parser: 0]
[parser_config_file: ]
[objective_seed: 5]
[num_class: 1]
[is_unbalance: 0]
[scale_pos_weight: 1]
[sigmoid: 1]
[boost_from_average: 1]
[reg_sqrt: 0]
[alpha: 0.9]
[fair_c: 1]
[poisson_max_delta_step: 0.7]
[tweedie_variance_power: 1.5]
[lambdarank_truncation_level: 30]
[lambdarank_norm: 1]
[label_gain: ]
[lambdarank_position_bias_regularization: 0]
[eval_at: ]
[multi_error_top_k: 1]
[auc_mu_weights: ]
[num_machines: 1]
[local_listen_port: 12400]
[time_out: 120]
[machine_list_filename: ]
[machines: ]
[gpu_platform_id: -1]
[gpu_device_id: -1]
[gpu_use_dp: 0]
[num_gpu: 1]

end of parameters

pandas_categorical:null
